Language model created by QuickLM on Sun Apr 30 10:14:12 EDT 2017
Copyright (c) 1996-2010 Carnegie Mellon University and Alexander I. Rudnicky

The model is in standard ARPA format, designed by Doug Paul while he was at MITRE.

The code that was used to produce this language model is available in Open Source.
Please visit http://www.speech.cs.cmu.edu/tools/ for more information

The (fixed) discount mass is 0.5. The backoffs are computed using the ratio method.
This model based on a corpus of 34 sentences and 38 words

\data\
ngram 1=38
ngram 2=75
ngram 3=48

\1-grams:
-0.8414 </s> -0.3010
-0.8414 <s> -0.2226
-2.3729 A -0.2335
-2.3729 ABSTRACT -0.2335
-2.3729 ATTECHRISE -0.2335
-2.3729 B -0.2335
-2.0719 BROWSER -0.2335
-2.3729 C -0.2335
-2.3729 CATS -0.2335
-2.3729 CLOSE -0.2973
-2.3729 D -0.2335
-2.0719 DOC -0.2291
-2.0719 E -0.2291
-2.3729 EIGHT -0.2335
-2.3729 EMINEM -0.2335
-2.3729 F -0.2335
-2.3729 FIFA -0.2335
-2.3729 FIVE -0.2335
-2.0719 FOUR -0.2335
-2.0719 G -0.2335
-2.3729 GOOGLE -0.2335
-1.8958 J -0.2248
-2.3729 K -0.2955
-2.0719 M -0.2936
-2.3729 NINE -0.2335
-2.3729 ONE -0.2335
-2.3729 OPEN -0.2973
-1.7709 P -0.2861
-2.3729 S -0.2992
-2.3729 SEARCH -0.2335
-2.3729 SEVEN -0.2335
-2.3729 SIX -0.2335
-2.3729 STAN -0.2335
-2.0719 T -0.2291
-2.3729 TEN -0.2335
-2.0719 THREE -0.2335
-2.3729 TWO -0.2335
-2.0719 X -0.2291

\2-grams:
-1.8325 <s> A 0.0000
-1.8325 <s> ABSTRACT 0.0000
-1.8325 <s> ATTECHRISE 0.0000
-1.8325 <s> B 0.0000
-1.8325 <s> C 0.0000
-1.8325 <s> CATS 0.0000
-1.8325 <s> CLOSE 0.0000
-1.8325 <s> D 0.0000
-1.5315 <s> DOC 0.0000
-1.8325 <s> E -0.1761
-1.8325 <s> EIGHT 0.0000
-1.8325 <s> EMINEM 0.0000
-1.8325 <s> F 0.0000
-1.8325 <s> FIFA 0.0000
-1.8325 <s> FIVE 0.0000
-1.8325 <s> FOUR 0.0000
-1.8325 <s> GOOGLE 0.0000
-1.5315 <s> J -0.1249
-1.5315 <s> M 0.0000
-1.8325 <s> NINE 0.0000
-1.8325 <s> ONE 0.0000
-1.8325 <s> OPEN 0.0000
-1.8325 <s> S 0.0000
-1.8325 <s> SEARCH 0.0000
-1.8325 <s> SEVEN 0.0000
-1.8325 <s> SIX 0.0000
-1.8325 <s> STAN 0.0000
-1.8325 <s> T -0.1761
-1.8325 <s> TEN 0.0000
-1.8325 <s> THREE 0.0000
-1.8325 <s> TWO 0.0000
-0.3010 A </s> -0.3010
-0.3010 ABSTRACT </s> -0.3010
-0.3010 ATTECHRISE </s> -0.3010
-0.3010 B </s> -0.3010
-0.3010 BROWSER </s> -0.3010
-0.3010 C </s> -0.3010
-0.3010 CATS </s> -0.3010
-0.3010 CLOSE BROWSER 0.0000
-0.3010 D </s> -0.3010
-0.6021 DOC </s> -0.3010
-0.6021 DOC X -0.1761
-0.6021 E </s> -0.3010
-0.6021 E G 0.0000
-0.3010 EIGHT </s> -0.3010
-0.3010 EMINEM </s> -0.3010
-0.3010 F </s> -0.3010
-0.3010 FIFA </s> -0.3010
-0.3010 FIVE </s> -0.3010
-0.3010 FOUR </s> -0.3010
-0.3010 G </s> -0.3010
-0.3010 GOOGLE </s> -0.3010
-0.7782 J </s> -0.3010
-0.4771 J P -0.1761
-0.3010 K J -0.2218
-0.3010 M P -0.1761
-0.3010 NINE </s> -0.3010
-0.3010 ONE </s> -0.3010
-0.3010 OPEN BROWSER 0.0000
-0.9031 P E -0.1761
-0.9031 P FOUR 0.0000
-0.9031 P G 0.0000
-0.9031 P THREE 0.0000
-0.3010 S K 0.0000
-0.3010 SEARCH </s> -0.3010
-0.3010 SEVEN </s> -0.3010
-0.3010 SIX </s> -0.3010
-0.3010 STAN </s> -0.3010
-0.6021 T </s> -0.3010
-0.6021 T X -0.1761
-0.3010 TEN </s> -0.3010
-0.3010 THREE </s> -0.3010
-0.3010 TWO </s> -0.3010
-0.6021 X </s> -0.3010
-0.6021 X T -0.1761

\3-grams:
-0.3010 <s> A </s>
-0.3010 <s> ABSTRACT </s>
-0.3010 <s> ATTECHRISE </s>
-0.3010 <s> B </s>
-0.3010 <s> C </s>
-0.3010 <s> CATS </s>
-0.3010 <s> CLOSE BROWSER
-0.3010 <s> D </s>
-0.6021 <s> DOC </s>
-0.6021 <s> DOC X
-0.3010 <s> E </s>
-0.3010 <s> EIGHT </s>
-0.3010 <s> EMINEM </s>
-0.3010 <s> F </s>
-0.3010 <s> FIFA </s>
-0.3010 <s> FIVE </s>
-0.3010 <s> FOUR </s>
-0.3010 <s> GOOGLE </s>
-0.3010 <s> J P
-0.3010 <s> M P
-0.3010 <s> NINE </s>
-0.3010 <s> ONE </s>
-0.3010 <s> OPEN BROWSER
-0.3010 <s> S K
-0.3010 <s> SEARCH </s>
-0.3010 <s> SEVEN </s>
-0.3010 <s> SIX </s>
-0.3010 <s> STAN </s>
-0.3010 <s> T X
-0.3010 <s> TEN </s>
-0.3010 <s> THREE </s>
-0.3010 <s> TWO </s>
-0.3010 CLOSE BROWSER </s>
-0.3010 DOC X </s>
-0.3010 E G </s>
-0.6021 J P E
-0.6021 J P G
-0.3010 K J </s>
-0.6021 M P FOUR
-0.6021 M P THREE
-0.3010 OPEN BROWSER </s>
-0.3010 P E G
-0.3010 P FOUR </s>
-0.3010 P G </s>
-0.3010 P THREE </s>
-0.3010 S K J
-0.3010 T X T
-0.3010 X T </s>

\end\
