Language model created by QuickLM on Tue Jun  6 08:49:37 EDT 2017
Copyright (c) 1996-2010 Carnegie Mellon University and Alexander I. Rudnicky

The model is in standard ARPA format, designed by Doug Paul while he was at MITRE.

The code that was used to produce this language model is available in Open Source.
Please visit http://www.speech.cs.cmu.edu/tools/ for more information

The (fixed) discount mass is 0.5. The backoffs are computed using the ratio method.
This model based on a corpus of 16 sentences and 18 words

\data\
ngram 1=18
ngram 2=32
ngram 3=16

\1-grams:
-0.7782 </s> -0.3010
-0.7782 <s> -0.2218
-1.9823 ABSTRACT -0.2218
-1.9823 BROWSER -0.2218
-1.9823 CATS -0.2218
-1.9823 CLOSE -0.2218
-1.9823 DOCX -0.2218
-1.9823 DOT -0.2218
-1.9823 FACEBOOK -0.2218
-1.9823 JPG -0.2218
-1.9823 MAIL -0.2218
-1.9823 ONE -0.2218
-1.9823 OPEN -0.2218
-1.9823 SEARCH -0.2218
-1.9823 SKJ -0.2218
-1.9823 THREE -0.2218
-1.9823 TWO -0.2218
-1.9823 YOUTUBE -0.2218

\2-grams:
-1.5051 <s> ABSTRACT 0.0000
-1.5051 <s> BROWSER 0.0000
-1.5051 <s> CATS 0.0000
-1.5051 <s> CLOSE 0.0000
-1.5051 <s> DOCX 0.0000
-1.5051 <s> DOT 0.0000
-1.5051 <s> FACEBOOK 0.0000
-1.5051 <s> JPG 0.0000
-1.5051 <s> MAIL 0.0000
-1.5051 <s> ONE 0.0000
-1.5051 <s> OPEN 0.0000
-1.5051 <s> SEARCH 0.0000
-1.5051 <s> SKJ 0.0000
-1.5051 <s> THREE 0.0000
-1.5051 <s> TWO 0.0000
-1.5051 <s> YOUTUBE 0.0000
-0.3010 ABSTRACT </s> -0.3010
-0.3010 BROWSER </s> -0.3010
-0.3010 CATS </s> -0.3010
-0.3010 CLOSE </s> -0.3010
-0.3010 DOCX </s> -0.3010
-0.3010 DOT </s> -0.3010
-0.3010 FACEBOOK </s> -0.3010
-0.3010 JPG </s> -0.3010
-0.3010 MAIL </s> -0.3010
-0.3010 ONE </s> -0.3010
-0.3010 OPEN </s> -0.3010
-0.3010 SEARCH </s> -0.3010
-0.3010 SKJ </s> -0.3010
-0.3010 THREE </s> -0.3010
-0.3010 TWO </s> -0.3010
-0.3010 YOUTUBE </s> -0.3010

\3-grams:
-0.3010 <s> ABSTRACT </s>
-0.3010 <s> BROWSER </s>
-0.3010 <s> CATS </s>
-0.3010 <s> CLOSE </s>
-0.3010 <s> DOCX </s>
-0.3010 <s> DOT </s>
-0.3010 <s> FACEBOOK </s>
-0.3010 <s> JPG </s>
-0.3010 <s> MAIL </s>
-0.3010 <s> ONE </s>
-0.3010 <s> OPEN </s>
-0.3010 <s> SEARCH </s>
-0.3010 <s> SKJ </s>
-0.3010 <s> THREE </s>
-0.3010 <s> TWO </s>
-0.3010 <s> YOUTUBE </s>

\end\
