Language model created by QuickLM on Sat Apr 15 11:25:32 EDT 2017
Copyright (c) 1996-2010 Carnegie Mellon University and Alexander I. Rudnicky

The model is in standard ARPA format, designed by Doug Paul while he was at MITRE.

The code that was used to produce this language model is available in Open Source.
Please visit http://www.speech.cs.cmu.edu/tools/ for more information

The (fixed) discount mass is 0.5. The backoffs are computed using the ratio method.
This model based on a corpus of 63 sentences and 62 words

\data\
ngram 1=62
ngram 2=120
ngram 3=60

\1-grams:
-0.7782 </s> -0.3010
-0.7782 <s> -0.2218
-2.5775 A -0.2218
-2.5775 ABSTRACT -0.2218
-2.5775 B -0.2218
-2.2765 BROWSER -0.2218
-2.5775 C -0.2218
-2.5775 CATS -0.2218
-2.2765 CLOSE -0.2218
-2.5775 D -0.2218
-2.5775 DAD -0.2218
-2.5775 DOC -0.2218
-2.5775 DOCX -0.2218
-2.5775 E -0.2218
-2.5775 EIGHT -0.2218
-2.5775 EMINEM -0.2218
-2.5775 EXE -0.2218
-2.5775 F -0.2218
-2.5775 FACEBOOK -0.2218
-2.5775 FIVE -0.2218
-2.5775 FOUR -0.2218
-2.5775 G -0.2218
-2.5775 GOOGLE -0.2218
-2.5775 H -0.2218
-2.5775 I -0.2218
-2.5775 J -0.2218
-2.5775 JPEG -0.2218
-2.5775 JPG -0.2218
-2.5775 K -0.2218
-2.5775 L -0.2218
-2.5775 M -0.2218
-2.5775 MASTER -0.2218
-2.5775 MEDIA -0.2218
-2.5775 MOM -0.2218
-2.5775 N -0.2218
-2.5775 NINE -0.2218
-2.5775 O -0.2218
-2.5775 ONE -0.2218
-2.2765 OPEN -0.2218
-2.5775 P -0.2218
-2.5775 PLAYER -0.2218
-2.5775 Q -0.2218
-2.5775 R -0.2218
-2.5775 S -0.2218
-2.5775 SEARCH -0.2218
-2.5775 SEVEN -0.2218
-2.5775 SIS -0.2218
-2.5775 SIX -0.2218
-2.5775 SKJ -0.2218
-2.5775 T -0.2218
-2.5775 TEN -0.2218
-2.5775 THE -0.2218
-2.5775 THREE -0.2218
-2.5775 TWO -0.2218
-2.5775 U -0.2218
-2.5775 V -0.2218
-2.5775 W -0.2218
-2.5775 WINDOWS -0.2218
-2.5775 WITH -0.2218
-2.5775 X -0.2218
-2.5775 Y -0.2218
-2.5775 Z -0.2218

\2-grams:
-2.1004 <s> A 0.0000
-2.1004 <s> ABSTRACT 0.0000
-2.1004 <s> B 0.0000
-1.7993 <s> BROWSER 0.0000
-2.1004 <s> C 0.0000
-2.1004 <s> CATS 0.0000
-1.7993 <s> CLOSE 0.0000
-2.1004 <s> D 0.0000
-2.1004 <s> DAD 0.0000
-2.1004 <s> DOC 0.0000
-2.1004 <s> DOCX 0.0000
-2.1004 <s> E 0.0000
-2.1004 <s> EIGHT 0.0000
-2.1004 <s> EMINEM 0.0000
-2.1004 <s> EXE 0.0000
-2.1004 <s> F 0.0000
-2.1004 <s> FACEBOOK 0.0000
-2.1004 <s> FIVE 0.0000
-2.1004 <s> FOUR 0.0000
-2.1004 <s> G 0.0000
-2.1004 <s> GOOGLE 0.0000
-2.1004 <s> H 0.0000
-2.1004 <s> I 0.0000
-2.1004 <s> J 0.0000
-2.1004 <s> JPEG 0.0000
-2.1004 <s> JPG 0.0000
-2.1004 <s> K 0.0000
-2.1004 <s> L 0.0000
-2.1004 <s> M 0.0000
-2.1004 <s> MASTER 0.0000
-2.1004 <s> MEDIA 0.0000
-2.1004 <s> MOM 0.0000
-2.1004 <s> N 0.0000
-2.1004 <s> NINE 0.0000
-2.1004 <s> O 0.0000
-2.1004 <s> ONE 0.0000
-1.7993 <s> OPEN 0.0000
-2.1004 <s> P 0.0000
-2.1004 <s> PLAYER 0.0000
-2.1004 <s> Q 0.0000
-2.1004 <s> R 0.0000
-2.1004 <s> S 0.0000
-2.1004 <s> SEARCH 0.0000
-2.1004 <s> SEVEN 0.0000
-2.1004 <s> SIS 0.0000
-2.1004 <s> SIX 0.0000
-2.1004 <s> SKJ 0.0000
-2.1004 <s> T 0.0000
-2.1004 <s> TEN 0.0000
-2.1004 <s> THE 0.0000
-2.1004 <s> THREE 0.0000
-2.1004 <s> TWO 0.0000
-2.1004 <s> U 0.0000
-2.1004 <s> V 0.0000
-2.1004 <s> W 0.0000
-2.1004 <s> WINDOWS 0.0000
-2.1004 <s> WITH 0.0000
-2.1004 <s> X 0.0000
-2.1004 <s> Y 0.0000
-2.1004 <s> Z 0.0000
-0.3010 A </s> -0.3010
-0.3010 ABSTRACT </s> -0.3010
-0.3010 B </s> -0.3010
-0.3010 BROWSER </s> -0.3010
-0.3010 C </s> -0.3010
-0.3010 CATS </s> -0.3010
-0.3010 CLOSE </s> -0.3010
-0.3010 D </s> -0.3010
-0.3010 DAD </s> -0.3010
-0.3010 DOC </s> -0.3010
-0.3010 DOCX </s> -0.3010
-0.3010 E </s> -0.3010
-0.3010 EIGHT </s> -0.3010
-0.3010 EMINEM </s> -0.3010
-0.3010 EXE </s> -0.3010
-0.3010 F </s> -0.3010
-0.3010 FACEBOOK </s> -0.3010
-0.3010 FIVE </s> -0.3010
-0.3010 FOUR </s> -0.3010
-0.3010 G </s> -0.3010
-0.3010 GOOGLE </s> -0.3010
-0.3010 H </s> -0.3010
-0.3010 I </s> -0.3010
-0.3010 J </s> -0.3010
-0.3010 JPEG </s> -0.3010
-0.3010 JPG </s> -0.3010
-0.3010 K </s> -0.3010
-0.3010 L </s> -0.3010
-0.3010 M </s> -0.3010
-0.3010 MASTER </s> -0.3010
-0.3010 MEDIA </s> -0.3010
-0.3010 MOM </s> -0.3010
-0.3010 N </s> -0.3010
-0.3010 NINE </s> -0.3010
-0.3010 O </s> -0.3010
-0.3010 ONE </s> -0.3010
-0.3010 OPEN </s> -0.3010
-0.3010 P </s> -0.3010
-0.3010 PLAYER </s> -0.3010
-0.3010 Q </s> -0.3010
-0.3010 R </s> -0.3010
-0.3010 S </s> -0.3010
-0.3010 SEARCH </s> -0.3010
-0.3010 SEVEN </s> -0.3010
-0.3010 SIS </s> -0.3010
-0.3010 SIX </s> -0.3010
-0.3010 SKJ </s> -0.3010
-0.3010 T </s> -0.3010
-0.3010 TEN </s> -0.3010
-0.3010 THE </s> -0.3010
-0.3010 THREE </s> -0.3010
-0.3010 TWO </s> -0.3010
-0.3010 U </s> -0.3010
-0.3010 V </s> -0.3010
-0.3010 W </s> -0.3010
-0.3010 WINDOWS </s> -0.3010
-0.3010 WITH </s> -0.3010
-0.3010 X </s> -0.3010
-0.3010 Y </s> -0.3010
-0.3010 Z </s> -0.3010

\3-grams:
-0.3010 <s> A </s>
-0.3010 <s> ABSTRACT </s>
-0.3010 <s> B </s>
-0.3010 <s> BROWSER </s>
-0.3010 <s> C </s>
-0.3010 <s> CATS </s>
-0.3010 <s> CLOSE </s>
-0.3010 <s> D </s>
-0.3010 <s> DAD </s>
-0.3010 <s> DOC </s>
-0.3010 <s> DOCX </s>
-0.3010 <s> E </s>
-0.3010 <s> EIGHT </s>
-0.3010 <s> EMINEM </s>
-0.3010 <s> EXE </s>
-0.3010 <s> F </s>
-0.3010 <s> FACEBOOK </s>
-0.3010 <s> FIVE </s>
-0.3010 <s> FOUR </s>
-0.3010 <s> G </s>
-0.3010 <s> GOOGLE </s>
-0.3010 <s> H </s>
-0.3010 <s> I </s>
-0.3010 <s> J </s>
-0.3010 <s> JPEG </s>
-0.3010 <s> JPG </s>
-0.3010 <s> K </s>
-0.3010 <s> L </s>
-0.3010 <s> M </s>
-0.3010 <s> MASTER </s>
-0.3010 <s> MEDIA </s>
-0.3010 <s> MOM </s>
-0.3010 <s> N </s>
-0.3010 <s> NINE </s>
-0.3010 <s> O </s>
-0.3010 <s> ONE </s>
-0.3010 <s> OPEN </s>
-0.3010 <s> P </s>
-0.3010 <s> PLAYER </s>
-0.3010 <s> Q </s>
-0.3010 <s> R </s>
-0.3010 <s> S </s>
-0.3010 <s> SEARCH </s>
-0.3010 <s> SEVEN </s>
-0.3010 <s> SIS </s>
-0.3010 <s> SIX </s>
-0.3010 <s> SKJ </s>
-0.3010 <s> T </s>
-0.3010 <s> TEN </s>
-0.3010 <s> THE </s>
-0.3010 <s> THREE </s>
-0.3010 <s> TWO </s>
-0.3010 <s> U </s>
-0.3010 <s> V </s>
-0.3010 <s> W </s>
-0.3010 <s> WINDOWS </s>
-0.3010 <s> WITH </s>
-0.3010 <s> X </s>
-0.3010 <s> Y </s>
-0.3010 <s> Z </s>

\end\
