Language model created by QuickLM on Mon Apr 10 12:22:02 EDT 2017
Copyright (c) 1996-2010 Carnegie Mellon University and Alexander I. Rudnicky

The model is in standard ARPA format, designed by Doug Paul while he was at MITRE.

The code that was used to produce this language model is available in Open Source.
Please visit http://www.speech.cs.cmu.edu/tools/ for more information

The (fixed) discount mass is 0.5. The backoffs are computed using the ratio method.
This model based on a corpus of 5 sentences and 7 words

\data\
ngram 1=7
ngram 2=10
ngram 3=5

\1-grams:
-0.7782 </s> -0.3010
-0.7782 <s> -0.2218
-1.4771 DRIVE -0.2218
-1.4771 EXTENSION -0.2218
-1.4771 FILE -0.2218
-1.4771 GOOGLE -0.2218
-1.4771 SEARCH -0.2218

\2-grams:
-1.0000 <s> DRIVE 0.0000
-1.0000 <s> EXTENSION 0.0000
-1.0000 <s> FILE 0.0000
-1.0000 <s> GOOGLE 0.0000
-1.0000 <s> SEARCH 0.0000
-0.3010 DRIVE </s> -0.3010
-0.3010 EXTENSION </s> -0.3010
-0.3010 FILE </s> -0.3010
-0.3010 GOOGLE </s> -0.3010
-0.3010 SEARCH </s> -0.3010

\3-grams:
-0.3010 <s> DRIVE </s>
-0.3010 <s> EXTENSION </s>
-0.3010 <s> FILE </s>
-0.3010 <s> GOOGLE </s>
-0.3010 <s> SEARCH </s>

\end\
